digraph Tree {
node [shape=box] ;
0 [label="price_first_item_purchased <= 35.0\ngini = 0.499\nsamples = 19630\nvalue = [10231, 9399]\nclass = Low Revenue"] ;
1 [label="united states <= 0.5\ngini = 0.413\nsamples = 9263\nvalue = [6565, 2698]\nclass = Low Revenue"] ;
0 -> 1 [labeldistance=2.5, labelangle=45, headlabel="True"] ;
5 [label="gini = 0.275\nsamples = 5601\nvalue = [4680, 921]\nclass = Low Revenue"] ;
1 -> 5 ;
6 [label="since_birth_parsed_days <= 102.0\ngini = 0.5\nsamples = 3662\nvalue = [1885, 1777]\nclass = Low Revenue"] ;
1 -> 6 ;
9 [label="gini = 0.493\nsamples = 3187\nvalue = [1410, 1777]\nclass = High Revenue"] ;
6 -> 9 ;
10 [label="gini = 0.0\nsamples = 475\nvalue = [475, 0]\nclass = Low Revenue"] ;
6 -> 10 ;
2 [label="united states <= 0.5\ngini = 0.457\nsamples = 10367\nvalue = [3666, 6701]\nclass = High Revenue"] ;
0 -> 2 [labeldistance=2.5, labelangle=-45, headlabel="False"] ;
3 [label="price_first_item_purchased <= 67.5\ngini = 0.5\nsamples = 6258\nvalue = [3168, 3090]\nclass = Low Revenue"] ;
2 -> 3 ;
7 [label="china <= 0.5\ngini = 0.481\nsamples = 4706\nvalue = [2810, 1896]\nclass = Low Revenue"] ;
3 -> 7 ;
11 [label="since_birth_parsed_days <= 106.0\ngini = 0.497\nsamples = 3923\nvalue = [2114, 1809]\nclass = Low Revenue"] ;
7 -> 11 ;
13 [label="gini = 0.5\nsamples = 3421\nvalue = [1692, 1729]\nclass = High Revenue"] ;
11 -> 13 ;
14 [label="gini = 0.268\nsamples = 502\nvalue = [422, 80]\nclass = Low Revenue"] ;
11 -> 14 ;
12 [label="gini = 0.198\nsamples = 783\nvalue = [696, 87]\nclass = Low Revenue"] ;
7 -> 12 ;
8 [label="gini = 0.355\nsamples = 1552\nvalue = [358, 1194]\nclass = High Revenue"] ;
3 -> 8 ;
4 [label="gini = 0.213\nsamples = 4109\nvalue = [498, 3611]\nclass = High Revenue"] ;
2 -> 4 ;
}